\data\
ngram 1=5
ngram 2=6

\1-grams:
-0.4259687 </s>
-99 <s> -0.30103
-0.60206 Cay -0.2730013
-0.60206 K. -0.2730013
-0.9030899 ache -0.09891

\2-grams:
-0.60206 <s> Cay
-0.30103 <s> k.
-0.1760913 Cay </s>
-0.4771213 K. Cay
-0.4771213 K. ache
-0.30103 ache </s>

\end\
